<?xml version="1.0"?>
<opencv_storage>
<my_svm type_id="opencv-ml-svm">
  <svm_type>C_SVC</svm_type>
  <kernel><type>LINEAR</type></kernel>
  <C>1.</C>
  <term_criteria><epsilon>2.2204460492503131e-16</epsilon>
    <iterations>100</iterations></term_criteria>
  <var_all>3780</var_all>
  <var_count>3780</var_count>
  <class_count>2</class_count>
  <class_labels type_id="opencv-matrix">
    <rows>1</rows>
    <cols>2</cols>
    <dt>i</dt>
    <data>
      -1 1</data></class_labels>
  <sv_total>1</sv_total>
  <support_vectors>
    <_>
      -4.71426966e-03 -4.47159866e-03 1.34147434e-02 4.62273061e-02
      -7.26267742e-03 1.07203387e-02 -2.23138207e-03 7.88834598e-03
      1.40992403e-02 8.58846307e-03 1.87921915e-02 -1.72328413e-03
      3.41048203e-02 -3.45216133e-02 1.74475778e-02 1.17678531e-02
      -1.97779015e-02 2.21278816e-02 -2.42774244e-02 -3.40015814e-02
      9.92828794e-03 2.51151472e-02 -3.97222415e-02 1.52788637e-03
      9.13516432e-03 -5.02665155e-03 5.38676046e-03 -7.00308606e-02
      -2.61632092e-02 -4.07718867e-02 -2.77842414e-02 -1.39368609e-01
      -1.17127961e-02 2.24551708e-02 -4.75849658e-02 -3.52458581e-02
      9.54057090e-03 1.60151962e-02 -3.64517490e-03 3.94439623e-02
      -1.06860744e-02 3.14979963e-02 2.89101750e-02 4.09643020e-04
      3.61610353e-02 1.25654805e-02 -1.92887406e-03 -9.36732255e-03
      2.24008951e-02 -2.98411418e-02 1.76804811e-02 2.69865114e-02
      1.70340613e-02 2.03922521e-02 -1.80446170e-02 4.39752033e-03
      -3.90977645e-03 1.86376832e-02 -5.78481071e-02 1.03640994e-02
      3.14405560e-02 -2.16768943e-02 -4.76904539e-03 2.60593905e-03
      -5.45262685e-03 -2.89861648e-03 1.44851226e-02 -6.91552535e-02
      2.69244984e-02 -1.98918656e-02 -3.36324684e-02 1.10175079e-02
      -1.08524859e-02 -2.00475706e-03 -5.19196177e-03 7.28971660e-02
      -1.79242380e-02 1.30751980e-02 2.20065359e-02 -6.51240989e-04
      7.45502487e-03 -1.63655356e-02 -2.39913706e-02 1.89495087e-02
      6.79710135e-02 2.40454334e-03 3.87341045e-02 1.50493998e-02
      2.72945147e-02 1.31443208e-02 -1.07325194e-03 -2.36517005e-02
      -1.46552604e-02 5.98552115e-02 -2.01680567e-02 2.18756925e-02
      2.33169645e-02 7.70281418e-04 4.95093549e-03 -1.82266068e-02
      -4.60258424e-02 2.39336267e-02 1.58432499e-02 1.56655405e-02
      3.97755057e-02 2.53922250e-02 2.03763321e-02 1.40134431e-02
      1.07882647e-02 -2.20583118e-02 1.80130955e-02 4.95246425e-02
      3.80861647e-02 5.16584851e-02 8.15772358e-03 1.29794199e-02
      4.84746769e-02 3.48467082e-02 -3.94318402e-02 -2.61382479e-02
      1.87541731e-02 3.94142345e-02 7.03313276e-02 1.54414522e-02
      2.83111520e-02 5.53765967e-02 -2.97756493e-02 -7.64463842e-02
      -3.93845746e-03 4.70658876e-02 3.97835486e-02 5.70751764e-02
      1.55976685e-02 2.88254190e-02 2.62850691e-02 2.07145116e-03
      -1.76588912e-02 1.30696567e-02 3.32002267e-02 2.55779680e-02
      4.88012657e-02 1.94751695e-02 5.56110637e-03 2.39815768e-02
      4.56704274e-02 -5.25365360e-02 -1.39466943e-02 8.34208634e-03
      1.68190002e-02 4.44031917e-02 1.58467963e-02 2.69520674e-02
      4.80056778e-02 4.15316084e-03 -2.83428263e-02 2.63518002e-02
      4.22476381e-02 -8.81072357e-02 4.55438579e-03 -2.88963644e-03
      5.19749592e-04 9.66901332e-03 -3.10582924e-03 -1.82311479e-02
      -1.63663179e-02 1.44259250e-02 4.46383096e-02 2.68471837e-02
      3.58093791e-02 1.06608532e-02 1.39830671e-02 -2.26652436e-02
      4.34432784e-03 -1.12778926e-02 -3.34568461e-03 -6.38476610e-02
      1.50281293e-02 3.07350531e-02 -1.76388212e-02 -1.46948444e-02
      3.26625295e-02 2.52026669e-03 4.42072302e-02 4.65756394e-02
      2.26072241e-02 1.81793440e-02 3.08321905e-04 2.08315756e-02
      4.97993827e-02 3.01925112e-02 -1.22014210e-02 5.66787366e-03
      2.11014338e-02 -2.36880854e-02 -2.48415116e-03 2.48349551e-03
      6.25697803e-03 4.10174765e-02 -2.93458719e-02 1.33814346e-02
      1.15389349e-02 2.00881958e-02 -3.49836573e-02 -1.55117828e-04
      -1.00546272e-03 -3.34138609e-03 -2.93452498e-02 -2.59896871e-02
      -2.98106801e-02 -3.11623272e-02 -4.40447213e-04 -5.81272990e-02
      -8.50214064e-03 -4.33792621e-02 -2.80523226e-02 -2.68790256e-02
      2.53262836e-02 -2.35875566e-02 -1.06483996e-02 1.85523760e-02
      -2.40313876e-02 1.11845788e-02 1.79070551e-02 3.01917177e-02
      6.65766597e-02 -2.27023382e-03 3.17175232e-04 4.67933947e-03
      2.86057647e-02 1.26808435e-02 1.44188609e-02 1.31642139e-02
      4.37553152e-02 4.55375053e-02 -5.08387387e-02 -3.31609212e-02
      -2.87108794e-02 1.83042407e-03 -4.02867496e-02 -1.02591943e-02
      -1.93226859e-02 -2.58556120e-02 -3.30199152e-02 -5.75081818e-02
      -1.41283218e-02 1.03248749e-02 1.94020364e-02 6.53267512e-03
      1.72739588e-02 -1.88225806e-02 1.47752659e-02 -4.49381322e-02
      1.15408087e-02 3.17820720e-02 5.69260400e-03 4.10565250e-02
      -5.41470991e-03 -1.05568739e-02 -8.72979779e-03 -2.60055903e-03
      2.33120215e-03 3.76241580e-02 4.04719189e-02 2.95534208e-02
      4.84848544e-02 3.20505761e-02 2.60351487e-02 5.00585418e-03
      1.48809678e-03 2.38043536e-02 -2.07083896e-02 7.84400664e-03
      -3.88076203e-03 2.90618390e-02 -6.42293915e-02 -1.59156765e-03
      -1.68322269e-02 -1.81727801e-02 -5.65711409e-02 1.16083315e-02
      5.06214425e-03 1.67087989e-03 2.58489735e-02 -3.15292329e-02
      2.52597127e-03 -9.64620430e-03 7.53326621e-03 -1.01552876e-02
      1.79299638e-02 -5.97229879e-03 1.12892119e-02 4.41413373e-02
      3.21859531e-02 2.12976485e-02 -2.07149470e-03 -4.56530182e-03
      2.09469758e-02 5.84889725e-02 -1.45668872e-02 -1.55905914e-02
      2.70517301e-02 4.10286300e-02 1.33772194e-02 1.85415745e-02
      2.99518276e-02 5.80977835e-02 1.59063395e-02 -4.61115316e-02
      -2.37487201e-02 2.62435172e-02 1.91585440e-02 -1.74118951e-02
      -2.23630331e-02 -6.31359667e-02 -3.39015434e-03 2.86541935e-02
      -6.00137711e-02 -3.52387428e-02 -4.01052088e-02 -3.51617709e-02
      -4.53273207e-03 -1.61249563e-02 -2.37506498e-02 2.40378473e-02
      2.23265328e-02 -1.08548356e-02 -7.28570856e-03 7.47095374e-03
      8.42172559e-03 -1.36827994e-02 2.83418782e-02 4.03628312e-02
      4.51542325e-02 -1.46032711e-02 1.26952548e-02 3.59309930e-03
      3.39830518e-02 4.13412750e-02 2.45492794e-02 3.35019939e-02
      5.96561506e-02 1.03093348e-02 2.45413873e-02 -4.18773443e-02
      -2.45948937e-02 -4.69418690e-02 -5.46047799e-02 -1.91182252e-02
      -2.53859833e-02 -2.59647369e-02 4.57959287e-02 -1.86237618e-02
      -2.79751513e-02 1.23914722e-02 -1.55706061e-02 -1.31677752e-02
      -4.83316835e-03 1.73474057e-03 3.01310830e-02 4.40152269e-03
      -2.20100116e-02 -8.30269884e-03 5.00703650e-03 3.43779847e-02
      1.21471500e-02 1.14253787e-02 1.02432389e-02 4.17895541e-02
      -3.29541654e-05 -1.23941153e-02 1.54022416e-02 1.09916581e-02
      3.20218541e-02 3.27871107e-02 -8.10099300e-03 -2.40318459e-02
      2.51030773e-02 -1.25916852e-02 -2.31104121e-02 -2.00767852e-02
      1.31992772e-02 2.20736791e-03 1.54789339e-03 -2.13958174e-02
      -9.13593080e-03 2.95584481e-02 -1.66548733e-02 -4.28570658e-02
      3.07794735e-02 1.31981354e-02 1.69835538e-02 2.33481475e-03
      -1.94187947e-02 -3.73223834e-02 -1.65339261e-02 -6.38353229e-02
      -2.18412429e-02 6.26377936e-04 7.16430295e-05 6.61228318e-03
      2.34659780e-02 1.28413709e-02 -4.22139131e-02 -6.71163294e-03
      -3.02083474e-02 2.20877994e-02 2.60085613e-02 8.70756712e-03
      1.39980149e-02 6.16457090e-02 1.35337925e-02 -2.45684832e-02
      -9.83580481e-03 1.12312101e-02 -2.11294405e-02 9.89572797e-03
      2.01624306e-03 -1.87184270e-02 -2.09412333e-02 -2.63806549e-04
      -2.84996424e-02 -1.11511666e-02 -5.35984747e-02 -3.60217057e-02
      7.91253056e-03 -1.04476856e-02 4.73582884e-03 6.05552504e-03
      3.77015807e-02 -8.23777728e-03 2.04740721e-03 -6.61943201e-03
      -7.36458786e-03 -1.55253224e-02 -1.07663879e-02 -5.11784526e-03
      -9.16591287e-03 1.04097323e-02 -1.45293027e-02 1.47678738e-03
      -7.45783420e-03 -8.51163361e-03 -3.05708274e-02 -2.46760156e-02
      2.57394239e-02 4.23195101e-02 3.32529508e-02 7.43196253e-03
      1.82634350e-02 3.24862972e-02 -3.00964527e-02 -5.72984256e-02
      -1.82100048e-03 -4.02802043e-02 -1.99725721e-02 4.82438691e-03
      -1.21924989e-02 1.45926615e-02 -2.13179719e-02 4.39169398e-03
      -2.11272389e-02 -1.87034905e-02 4.42406908e-02 7.54126441e-03
      2.79537030e-02 1.41817322e-02 3.31205092e-02 2.21495517e-02
      -2.61680968e-02 -2.81260684e-02 -5.08001298e-02 -1.02744820e-02
      -2.56535672e-02 6.65931636e-03 -4.52363025e-03 -3.01070488e-03
      2.76282546e-03 2.47175228e-02 6.26617996e-03 -6.40117796e-03
      5.10817021e-03 -4.99670841e-02 1.40484516e-02 1.73894241e-02
      2.49634031e-02 2.41547767e-02 -7.45525677e-03 -2.17803475e-02
      -1.80482417e-02 1.62032358e-02 -6.03074767e-02 3.16059357e-03
      -7.91647658e-03 -1.66580006e-02 -5.16602828e-04 4.31548879e-02
      2.41920818e-02 1.01044599e-03 2.60253288e-02 -6.55951053e-02
      1.54749304e-02 -1.07594710e-02 -1.27678579e-02 2.32112650e-02
      2.14552395e-02 5.91648184e-03 -1.55722862e-03 -2.96117943e-02
      -4.31954451e-02 -2.58713476e-02 -4.38067270e-03 1.64856240e-02
      3.00706290e-02 1.54073909e-02 3.73814702e-02 4.93193790e-02
      -9.84713621e-03 -3.35231125e-02 -2.16149241e-02 -1.75040793e-02
      1.71694774e-02 7.82658719e-03 6.62380084e-02 3.50465328e-02
      4.32763854e-03 -4.38619815e-02 -7.16913193e-02 -3.65080796e-02
      -2.16724053e-02 -5.43528749e-03 4.71701100e-02 5.08530922e-02
      5.21630049e-02 5.00275120e-02 6.08583633e-03 -4.82019335e-02
      -2.84717102e-02 -5.52570522e-02 -3.95088457e-03 2.83513851e-02
      -2.83997245e-02 -3.83002334e-03 4.34873402e-02 3.98361422e-02
      -1.23882815e-02 2.55248323e-02 2.97902916e-02 3.32407211e-03
      -1.72686372e-02 -3.96761037e-02 -4.38577272e-02 1.97608527e-02
      2.15182975e-02 2.33013686e-02 4.98520285e-02 4.26026918e-02
      -1.21737039e-02 -2.86034010e-02 -3.23883705e-02 7.79915543e-04
      6.21267483e-02 2.98957191e-02 -2.71216147e-02 1.85590833e-02
      9.50632896e-03 -1.12362169e-02 -5.03466651e-02 -7.76021630e-02
      -3.88689786e-02 -2.74362648e-03 -2.15136241e-02 -4.60946411e-02
      4.61419635e-02 2.52186228e-02 -2.43049134e-02 -7.64890388e-02
      -4.05639032e-04 -2.47791298e-02 2.22469028e-02 4.37622927e-02
      2.91303266e-03 2.57948432e-02 1.76109094e-02 -2.90630683e-02
      -2.04695389e-02 1.18003860e-02 -2.01611891e-02 1.40312156e-02
      2.67084371e-02 -1.72486901e-02 2.49627475e-02 1.34130521e-02
      -4.12552096e-02 -4.79277363e-03 1.44394878e-02 -3.16646807e-02
      5.05805481e-03 1.91677939e-02 2.29094755e-02 2.59753875e-02
      1.20382365e-02 -3.48838754e-02 1.83532629e-02 8.64429399e-03
      -7.30117485e-02 -4.02123928e-02 -3.33233736e-02 -3.81563063e-04
      7.82450568e-03 7.43886735e-03 -5.43994606e-02 -1.09174931e-02
      7.56290602e-03 -1.63756255e-02 3.91187239e-03 3.44084352e-02
      -5.88593818e-03 3.99947912e-02 3.79830264e-02 -4.81270300e-03
      2.25313641e-02 -2.26071086e-02 -5.53370640e-02 -2.01416500e-02
      -9.72347520e-03 1.37222861e-03 3.11385691e-02 4.00325768e-02
      4.58833948e-03 2.41996609e-02 1.80207994e-02 -2.73625925e-02
      -3.79594527e-02 -5.24903694e-03 -2.78475937e-02 4.32650605e-03
      7.14747515e-03 -2.88387258e-02 1.15637304e-02 -1.37761412e-02
      -3.71672064e-02 -9.19788424e-03 1.62362568e-02 5.11349831e-03
      4.85144602e-03 1.31765464e-02 -3.41995098e-02 -1.22775314e-02
      -4.65662479e-02 -9.16020125e-02 -5.15615009e-02 -2.03130636e-02
      1.68327242e-02 4.86467220e-02 1.97870638e-02 7.50516728e-03
      8.66496377e-03 -1.00313500e-02 -3.30896974e-02 3.42382491e-03
      1.96002237e-03 1.72378924e-02 2.93493476e-02 1.40115693e-02
      6.77972939e-03 2.87437271e-02 1.78379193e-02 -3.84609140e-02
      -3.82943302e-02 4.29421780e-04 4.30362970e-02 2.69649308e-02
      1.24219563e-02 1.99022181e-02 3.99023332e-02 4.84628882e-03
      -8.20702873e-03 4.52154316e-03 5.99086657e-02 2.27172989e-02
      4.12060395e-02 9.71536431e-03 2.17604209e-02 3.54516618e-02
      1.86431885e-03 -4.47944030e-02 -1.84400808e-02 -4.94696852e-03
      2.86971070e-02 1.47404037e-02 6.29930245e-03 4.97628236e-03
      1.58992466e-02 -3.37600410e-02 -4.36056405e-02 -1.83166955e-02
      1.31208459e-02 -4.55431547e-03 1.84727907e-02 3.05897333e-02
      1.32471696e-02 -2.81335972e-03 -3.99679728e-02 -1.50794843e-02
      2.72150412e-02 6.07976951e-02 2.15768553e-02 5.93521586e-03
      -2.75798645e-02 -8.63132905e-03 2.15424970e-02 -4.37779799e-02
      -5.30879833e-02 9.35363863e-03 1.51381828e-02 4.14804146e-02
      1.93311442e-02 1.55742280e-03 5.68704121e-03 6.90203812e-03
      -3.93197611e-02 3.93248862e-03 2.09743180e-03 -3.16900504e-03
      4.89248428e-03 2.26587765e-02 1.65553968e-02 -4.31884918e-03
      -2.45330688e-02 -2.28819903e-02 -1.65824480e-02 -2.83785611e-02
      -1.89229418e-02 -9.58281290e-03 -1.23241208e-02 -1.56944208e-02
      -4.44048680e-02 -4.06370275e-02 -2.35928446e-02 -6.42966339e-03
      -9.85912234e-03 2.98035680e-03 4.26435731e-02 -2.94292648e-03
      1.30211227e-02 6.22654520e-03 1.20862843e-02 -6.83812611e-03
      1.74736548e-02 4.96840850e-03 -1.88570693e-02 1.67411286e-02
      -8.63773189e-03 3.04800551e-03 -9.87082161e-03 1.06309364e-02
      -2.68654134e-02 -1.91680137e-02 -1.64897982e-02 -1.26387766e-02
      -3.72309936e-03 -2.04311660e-03 -1.82218791e-03 -2.52013505e-02
      -1.78246852e-02 -1.82495918e-02 -1.73202697e-02 2.11259443e-02
      7.63144623e-03 4.95457873e-02 -2.57040578e-04 -1.36637529e-02
      -2.18759943e-02 -1.60659682e-02 -1.77770350e-02 -6.25363202e-04
      5.30980621e-03 -2.10069772e-02 2.52342108e-03 -5.23120584e-03
      2.83841393e-04 3.29753850e-03 2.14020573e-02 -2.02486794e-02
      -3.74847162e-03 1.00923162e-02 1.91101674e-02 4.44748290e-02
      7.80627248e-04 1.72274373e-02 7.55795650e-03 2.48829694e-03
      -3.82370519e-04 4.89801960e-03 1.49200726e-02 2.07586270e-02
      4.65050573e-03 -8.10899865e-03 -2.79372204e-02 -2.59896666e-02
      -3.33605073e-02 2.07957830e-02 -2.91308248e-03 1.74795371e-02
      3.26682776e-02 3.60138379e-02 1.54242655e-02 -5.12023782e-03
      -3.64342630e-02 -2.29597464e-03 -1.63396224e-02 -1.56715214e-02
      5.53609850e-03 1.78367924e-02 2.63956338e-02 9.19445977e-03
      -1.24938907e-02 -2.73042787e-02 1.05323885e-02 -6.21724641e-03
      1.34235974e-02 2.14575101e-02 1.25828683e-02 2.71358080e-02
      2.57082768e-02 4.87740664e-03 -4.87836562e-02 -9.89026483e-03
      1.52286692e-02 -4.00162078e-02 -2.19139326e-02 2.09005959e-02
      4.73907702e-02 3.18904743e-02 1.09808920e-02 -3.14243883e-02
      2.40952373e-02 3.15674767e-02 -1.46998754e-02 -4.13902235e-05
      -1.30325528e-02 1.43669825e-02 2.96529122e-02 1.22720404e-02
      -3.03884204e-02 3.35798860e-02 -1.59723312e-02 -1.77504104e-02
      -1.41171012e-02 -1.33563038e-02 1.71393622e-03 2.63645761e-02
      1.07198479e-02 -5.19237779e-02 -2.48662140e-02 -3.41397040e-02
      -1.22854421e-02 -1.62323937e-02 6.83846045e-03 1.57170109e-02
      4.08758894e-02 3.26855332e-02 -1.98754333e-02 -2.29654554e-02
      1.43812615e-02 -2.34949752e-03 -4.02392726e-03 -3.68586034e-02
      2.36269971e-03 1.55811794e-02 6.86822401e-04 -9.59712360e-03
      2.25607175e-02 -7.31710345e-03 1.10470550e-02 2.35790927e-02
      5.10726357e-03 4.98969518e-02 1.73738133e-02 1.77637264e-02
      3.72412875e-02 2.33614054e-02 -2.08890159e-02 -4.53534396e-03
      1.58125954e-03 4.80162678e-03 3.94746754e-03 2.67274491e-02
      2.39304062e-02 -2.24130880e-02 -2.82239374e-02 -3.19109485e-02
      1.10354284e-02 1.55051262e-03 6.89099077e-03 -3.52939987e-03
      -1.82654969e-02 6.26776973e-03 -1.28219118e-02 -1.54684475e-02
      -3.03551257e-02 -6.86417893e-03 1.27452454e-02 2.16941256e-02
      3.66427638e-02 -6.78868499e-03 -5.62310312e-03 2.55775936e-02
      7.01711280e-03 -3.86521162e-04 2.48420630e-02 3.13694812e-02
      3.96170430e-02 5.11041395e-02 2.97558662e-02 -1.24666160e-02
      1.17420014e-02 2.30490230e-04 -3.13909799e-02 -1.13579705e-02
      1.23603549e-02 9.57322656e-04 -1.10831652e-02 -3.11576370e-02
      -3.75903696e-02 -3.99075858e-02 -3.60834002e-02 -5.16347587e-02
      -2.11483184e-02 1.29491817e-02 1.29980557e-02 3.13787535e-02
      9.65413451e-03 -3.37719992e-02 -4.86909933e-02 -1.13294469e-02
      -2.25661248e-02 -7.96223339e-03 -6.26267539e-03 9.51115601e-03
      2.23734062e-02 3.75824943e-02 -2.07354175e-03 3.48360650e-03
      -5.47715873e-02 -6.85246848e-03 -2.92099379e-02 8.59156065e-03
      2.94783041e-02 2.62865126e-02 4.90320958e-02 3.02066598e-02
      3.87335382e-02 -1.39965834e-02 -5.32980673e-02 -3.29874717e-02
      -2.93069202e-02 2.48425193e-02 6.16742037e-02 2.60520615e-02
      -2.47705150e-02 -3.82293202e-02 -3.63858677e-02 -3.35638896e-02
      -2.02801134e-02 1.58201344e-03 6.27625585e-02 5.72640710e-02
      1.78904813e-02 -2.36279462e-02 -3.18557769e-02 -2.72592679e-02
      -2.87565272e-02 -9.33472291e-02 -4.39491197e-02 -5.73752960e-03
      9.93137364e-04 4.72387718e-03 1.64648499e-02 7.74368411e-03
      -2.27316674e-02 2.85760909e-02 -2.77909636e-02 1.69700105e-03
      3.01053952e-02 8.64310749e-03 1.61887687e-02 5.66055961e-02
      3.65637951e-02 3.69836614e-02 -6.92616254e-02 -7.71126673e-02
      -2.50163916e-02 4.28298451e-02 8.28280486e-03 -7.38130510e-03
      -1.16435001e-02 -3.11453100e-02 -3.11859269e-02 2.87219435e-02
      -2.24412885e-02 -1.64586343e-02 3.76731157e-02 -5.74286503e-04
      -1.03545301e-02 1.35290679e-02 -3.45151648e-02 -8.48720258e-04
      4.67361603e-03 -2.43526907e-03 2.20757443e-03 1.18311588e-02
      -6.34502023e-02 -3.93219758e-03 2.42108107e-02 4.70355013e-03
      -7.16562616e-03 5.49482964e-02 3.45789567e-02 2.73519456e-02
      3.67140099e-02 -1.93056297e-02 3.22956853e-02 2.54319678e-03
      -1.81704443e-02 9.79332253e-03 -3.63154784e-02 3.98465758e-03
      -2.01820768e-02 -2.43822001e-02 -4.31343950e-02 -2.16369759e-02
      -1.25793330e-02 -3.56653370e-02 -2.48901546e-02 -1.77298170e-02
      7.63207348e-03 -3.82373779e-04 2.07538363e-02 -3.30338627e-02
      5.39258309e-02 1.04186954e-02 -5.11487527e-03 8.08852632e-03
      2.86834408e-02 2.97185648e-02 1.36031155e-02 -1.44332200e-02
      -6.42414242e-02 -3.25490758e-02 -4.45077717e-02 -3.13646384e-02
      -1.17854020e-02 4.08369154e-02 1.28380172e-02 3.09499241e-02
      3.49096209e-02 -1.57117657e-02 3.72681563e-04 -3.09955720e-02
      8.05645436e-03 2.30689384e-02 1.87924446e-03 -1.87360942e-02
      -1.54967690e-02 -1.38020664e-02 -7.30732456e-03 -1.31447921e-02
      -1.26617355e-02 2.65485253e-02 1.49187660e-02 6.47515384e-03
      -1.40736066e-02 1.16119918e-03 5.98040270e-03 -1.91013943e-02
      6.64545689e-03 -2.12455913e-02 4.05597501e-02 2.92350259e-02
      1.03763361e-02 3.87016237e-02 6.85856342e-02 1.97705254e-02
      5.28682955e-03 -5.08180214e-03 -3.19302408e-03 -9.89054982e-03
      -9.20083188e-03 -2.63309740e-02 2.60676611e-02 4.43334952e-02
      -1.13446647e-02 -2.98134075e-03 1.86492186e-02 -1.28950836e-04
      -4.87493314e-02 -3.82720158e-02 -2.48010680e-02 9.59993340e-03
      4.34458442e-02 3.23003368e-03 -1.90538596e-02 -1.90076306e-02
      1.68245286e-02 -1.85787445e-04 -1.12453317e-02 -1.02576874e-01
      -7.65023334e-03 -1.40433004e-02 -4.60755639e-02 -2.39208303e-02
      -2.97933556e-02 -1.24508096e-02 -6.61581159e-02 -1.13193490e-01
      3.58815454e-02 -7.72253284e-03 2.03888603e-02 1.21364202e-02
      2.28072759e-02 2.56170295e-02 2.91432478e-02 -2.25165896e-02
      1.75010208e-02 4.34707887e-02 -4.84605394e-02 -3.79279926e-02
      -6.63479697e-03 8.59259814e-03 5.10025362e-04 2.88065355e-02
      -8.38704873e-03 5.07747419e-02 -3.98483127e-02 -2.18115896e-02
      6.40485762e-03 -2.03920100e-02 -2.05946062e-02 -6.62611099e-03
      2.47334670e-02 -3.15637402e-02 -6.77213073e-02 3.51100229e-03
      -8.57575387e-02 -9.41843092e-02 -2.28965208e-02 8.94715893e-04
      -3.17849144e-02 -1.35595612e-02 -5.16599230e-03 1.06213363e-02
      5.41305766e-02 -3.57470661e-02 -2.36720312e-02 -7.78702460e-03
      -1.75200794e-02 -3.78326662e-02 1.23636622e-03 -1.63036156e-02
      5.14288060e-02 3.14151049e-02 -4.91921380e-02 1.74694508e-02
      5.22392802e-02 4.32381183e-02 5.06846048e-03 1.89055689e-02
      -1.78120453e-02 4.14578877e-02 2.88264584e-02 -9.11428556e-02
      -5.51223122e-02 -9.41361953e-03 -1.53633030e-02 -4.55590896e-02
      -4.34467234e-02 -1.61000174e-02 6.57015964e-02 1.75929144e-02
      -2.68328395e-02 2.46851183e-02 6.28993437e-02 3.08363475e-02
      -3.39676775e-02 -3.37829366e-02 -1.23101203e-02 9.47168246e-02
      -1.12870894e-03 -7.99602121e-02 -4.15359214e-02 -1.34906010e-03
      4.60651517e-02 4.19038162e-03 -1.53890941e-02 -2.46580653e-02
      1.91109423e-02 -1.22791398e-02 -3.59785706e-02 2.75672246e-02
      7.69272745e-02 5.57796955e-02 1.48955015e-02 -3.11962925e-02
      -3.04299407e-02 4.14227843e-02 6.23275759e-03 -2.54789107e-02
      2.55641080e-02 3.85816842e-02 1.69945005e-02 -5.17018139e-02
      -6.22474886e-02 -5.19268811e-02 2.39297189e-02 1.81054436e-02
      -1.20475516e-02 5.83283007e-02 6.59343004e-02 7.23592117e-02
      1.75603405e-02 -5.76705020e-03 -2.64375005e-02 4.27254178e-02
      -4.63835709e-02 -5.71352616e-02 -6.47093038e-05 3.71292979e-02
      6.77398592e-02 1.90570541e-02 -3.04097887e-02 -3.11357267e-02
      8.24110117e-03 -2.97331493e-02 -7.07080960e-02 -2.61074528e-02
      -1.45365018e-02 6.67681172e-02 1.00489864e-02 -2.67084241e-02
      -1.36013627e-02 -1.66787263e-02 -7.62848230e-03 -2.52388809e-02
      5.04412083e-03 9.21908952e-03 8.19774270e-02 1.72233395e-02
      -1.42827956e-02 -2.21018251e-02 1.60048828e-02 -1.19253714e-02
      -4.90669124e-02 -1.09588904e-02 -1.14275785e-02 5.74460924e-02
      3.14580277e-02 -1.28859943e-02 -1.08511178e-02 4.40705158e-02
      -5.70594594e-02 -4.42971848e-02 -3.91430520e-02 -1.47451423e-02
      2.82683447e-02 -1.19353663e-02 -2.01435424e-02 -3.68222818e-02
      -1.27332248e-02 -4.16115448e-02 -3.89062576e-02 -2.29585767e-02
      1.34515722e-04 2.28912234e-02 -1.33535080e-02 -2.50410549e-02
      -4.13898304e-02 -2.91965734e-02 1.66097302e-02 -4.76568341e-02
      -3.03761773e-02 4.87150252e-03 2.75433641e-02 -8.50672647e-03
      -1.47257922e-02 -1.58066414e-02 4.74219769e-02 1.39180878e-02
      -9.23961122e-03 1.31529048e-02 1.73474420e-02 5.33683933e-02
      1.96702313e-04 -3.15022096e-02 -2.50850841e-02 2.89444942e-02
      -3.49474214e-02 -3.55081707e-02 -1.83981359e-02 -4.73712431e-03
      -1.00757610e-02 -1.61678381e-02 -9.40058660e-03 4.31672577e-03
      1.28028849e-02 -4.95685413e-02 -7.26839900e-02 -6.99924603e-02
      -1.36388745e-02 -3.97820286e-02 -3.47970538e-02 -2.40303818e-02
      -4.57417518e-02 -3.31444964e-02 3.45863104e-02 3.28034745e-03
      2.94401702e-02 2.04099622e-02 2.72887591e-02 1.53864855e-02
      -1.33245718e-02 -8.63290112e-03 4.95948829e-02 1.50913559e-02
      -3.91116403e-02 -2.14550365e-02 -1.11666666e-02 -5.00330105e-02
      -2.95610558e-02 -2.69930661e-02 -1.11200213e-02 2.72591785e-02
      -1.58008430e-02 -5.34210093e-02 -3.70929278e-02 1.47669995e-02
      1.27594071e-02 4.82132612e-03 -9.13546421e-03 -1.17183765e-02
      -1.22174816e-02 -1.84195768e-02 -2.08424833e-02 -2.77669262e-02
      -3.36722098e-02 7.03823194e-03 3.09301168e-03 -7.55539071e-03
      -2.03659814e-02 -1.46864066e-02 4.66176793e-02 -8.24379455e-03
      -2.50402093e-02 -1.38347782e-02 -4.81046364e-03 8.65285378e-03
      -4.62793279e-03 -1.81794316e-02 3.32976095e-02 1.63800642e-02
      -1.79824103e-02 -1.80569440e-02 -1.87017247e-02 -2.29181163e-02
      -8.23996961e-03 -2.09189039e-02 -1.67694185e-02 1.09054884e-02
      -2.49161739e-02 7.06326077e-03 1.01788221e-02 -1.89935882e-02
      -9.99330776e-04 9.89902113e-03 -6.05308032e-03 -3.15524712e-02
      -3.28013413e-02 -5.66546507e-02 -4.39882167e-02 -2.26971484e-03
      -3.03419828e-02 1.71881891e-03 -4.71004611e-03 3.94597929e-03
      -1.31455343e-02 -3.70314717e-02 1.52049297e-02 -1.30907735e-02
      2.46849563e-02 5.38179139e-03 8.22330359e-03 1.42474873e-02
      3.87941711e-02 2.54644025e-02 1.17767043e-02 -2.60071922e-02
      -2.88385749e-02 2.77055334e-02 5.83528401e-03 -1.66664866e-03
      1.29943062e-02 -3.66316573e-03 1.84745286e-02 -3.02025229e-02
      -1.99007001e-02 -5.09261936e-02 1.70132723e-02 4.23942751e-04
      8.80260195e-04 -1.11284654e-03 1.09599186e-02 -2.63853148e-02
      -9.20653157e-03 1.45497527e-02 -2.35484038e-02 9.51322075e-03
      9.54016205e-03 8.83853249e-03 -3.94808389e-02 -3.34599311e-03
      -3.40487137e-02 -9.72695742e-03 -8.03043880e-03 -2.63384599e-02
      1.72353219e-02 -5.71518438e-03 1.35515127e-02 -4.61312383e-03
      -8.64944793e-03 -2.31089406e-02 -5.76161174e-03 -7.87056226e-04
      -2.57334691e-02 4.31477092e-03 -8.48226901e-03 5.84050305e-02
      -7.52271619e-03 1.06642712e-02 -4.29530330e-02 -1.45158572e-02
      4.59125172e-03 -2.16200706e-02 7.34937703e-03 -1.71606254e-04
      -2.49520829e-03 -4.70533259e-02 -3.37174237e-02 -4.54523489e-02
      -1.79490615e-02 -1.83416177e-02 -2.41140951e-04 5.10131707e-03
      2.90625868e-03 4.34898175e-02 2.56218482e-02 -1.19470467e-03
      -3.07220649e-02 -1.84409821e-03 -2.13933401e-02 -2.56148111e-02
      -1.30132465e-02 -7.52054760e-03 5.14073409e-02 -9.69716813e-03
      5.00200177e-03 -3.35199386e-02 -3.02005112e-02 -6.45050220e-03
      2.40746569e-02 -7.35101290e-04 5.10889571e-03 6.06938452e-02
      2.60496587e-02 -1.59382094e-02 2.77392585e-02 -3.72903608e-02
      -1.75453629e-02 -3.25275399e-02 -2.74454132e-02 -4.02748631e-03
      5.48333898e-02 2.91967727e-02 1.56820205e-03 -1.80326682e-02
      7.24219810e-03 1.71519369e-02 -4.71291179e-03 -3.81268822e-02
      4.93943766e-02 5.18839583e-02 2.57123001e-02 5.37007349e-03
      -1.15292650e-02 5.88554796e-03 -2.85801571e-02 -2.48439163e-02
      -5.30404672e-02 -1.45240854e-02 2.95347646e-02 1.70608312e-02
      -3.27840522e-02 6.51725521e-03 -4.35934514e-02 -2.41417848e-02
      -5.94797824e-03 -3.54484767e-02 4.72236872e-02 4.52524908e-02
      3.68929058e-02 1.94291547e-02 -6.38241740e-03 -4.53997739e-02
      1.46742957e-02 -1.03425914e-02 -2.54224651e-02 5.69631122e-02
      1.15364883e-02 -6.63096132e-03 1.70430430e-04 -2.91265063e-02
      -1.26265241e-02 7.29781017e-02 1.93924922e-02 -1.87332015e-02
      4.42201719e-02 9.10293253e-04 7.95904081e-03 1.41414739e-02
      -2.14342177e-02 4.08374630e-02 -3.31642516e-02 7.56590802e-04
      -1.66029036e-02 5.53875230e-02 -1.28624206e-02 4.82459972e-03
      -4.18175710e-03 -3.94582786e-02 -6.91249222e-02 -1.30062336e-02
      -3.39047462e-02 -3.34700085e-02 5.57176918e-02 -1.36994421e-02
      4.55046259e-03 2.71639284e-02 -6.47307700e-03 -3.84236053e-02
      -4.52724576e-04 3.28611257e-03 -3.92581038e-02 1.01930071e-02
      6.51547962e-05 -2.16517467e-02 -1.65677499e-02 -2.87419967e-02
      2.56725494e-02 -1.17553072e-02 8.31315201e-03 3.07161864e-02
      3.77101377e-02 2.72569247e-02 1.96594689e-02 2.49622809e-03
      -2.57329200e-04 2.10311376e-02 -2.89004352e-02 -7.55708367e-02
      -6.46162629e-02 1.00962743e-02 -2.49689501e-02 -3.75295691e-02
      -1.57542862e-02 -1.43504720e-02 -3.72564904e-02 -4.48203720e-02
      -4.80266772e-02 4.14211378e-02 6.25561699e-02 -6.85254228e-04
      1.12503357e-02 1.66651718e-02 3.85697000e-03 -5.22775725e-02
      -3.70806940e-02 -3.16422097e-02 1.85494646e-02 1.52018499e-02
      -1.06746121e-03 -3.09228618e-02 -3.51545662e-02 7.57411448e-03
      -2.56192051e-02 4.70713228e-02 -2.38858536e-03 2.54802890e-02
      3.07302754e-02 -4.32600314e-03 -2.73166578e-02 -2.46861130e-02
      4.23807390e-02 6.15088530e-02 -2.48085428e-02 -2.86484417e-02
      4.99982722e-02 2.14458182e-02 -6.17163889e-02 -4.24751714e-02
      -3.83506082e-02 -7.90276937e-03 -4.53831665e-02 7.80760050e-02
      4.88978578e-03 4.01057899e-02 4.77438830e-02 -3.19556445e-02
      -3.48632447e-02 -3.43140028e-02 2.29301676e-02 7.16614202e-02
      8.13118275e-03 1.35182086e-02 3.76401767e-02 2.29136497e-02
      1.55690184e-04 2.97609288e-02 1.94600392e-02 -2.20606849e-03
      1.88396722e-02 -6.35818988e-02 -1.34066902e-02 -3.19255181e-02
      -2.27827970e-02 -6.22268356e-02 -2.56407913e-02 9.68292262e-03
      -6.48930762e-03 -6.26761392e-02 5.68663562e-03 1.35165062e-02
      2.16171648e-02 -1.44017823e-02 -1.57769416e-02 9.87660140e-03
      2.09670868e-02 -1.18930908e-02 -2.98726186e-02 -5.87783419e-02
      -3.17541324e-02 -1.87454764e-02 -2.95454059e-02 2.30589486e-03
      -4.87171076e-02 1.18242204e-03 -4.64076735e-03 -6.53451607e-02
      -1.04215173e-02 9.01640859e-03 -4.03620396e-03 -1.28272539e-02
      -1.48315066e-02 -1.40456650e-02 2.58756522e-02 1.50590148e-02
      -1.55854821e-02 2.34861653e-02 -2.63224766e-02 -3.39314342e-02
      -7.30522035e-04 9.97863896e-03 -2.24057380e-02 -8.85514449e-03
      -2.15445948e-03 3.18756998e-02 -4.93207052e-02 -2.64215786e-02
      -2.08321549e-02 -2.96527538e-02 -7.74353743e-03 1.99596444e-03
      -6.17054291e-03 7.98272726e-04 -3.60539332e-02 -1.21477526e-02
      -1.23428702e-02 -1.07321916e-02 -1.11667532e-02 3.58459912e-02
      6.21233229e-03 -3.78262922e-02 5.01583796e-03 2.61872634e-02
      2.26439275e-02 -7.86406696e-02 -6.10801168e-02 -3.68364863e-02
      -2.42517870e-02 -5.69651164e-02 -4.30331714e-02 -1.02799162e-02
      4.33490388e-02 4.13976088e-02 -1.68038383e-02 -1.15179922e-02
      3.54513749e-02 1.09499590e-02 -7.03310296e-02 -5.58994114e-02
      -1.72558278e-02 7.20307976e-02 2.18346361e-02 -3.18206958e-02
      -5.42987064e-02 -4.76500094e-02 -2.10428294e-02 -3.62028219e-02
      -3.83737236e-02 1.00772744e-02 9.73599497e-03 7.35287666e-02
      2.67538652e-02 -1.86314154e-02 4.50128615e-02 1.49869444e-02
      -2.54252292e-02 -4.11890335e-02 -2.73479312e-03 3.01815644e-02
      3.67411808e-03 -3.63209322e-02 -3.66835557e-02 -9.95922089e-03
      -2.07029656e-02 -7.02041835e-02 -4.23624814e-02 -4.24098261e-02
      1.44069782e-02 3.88023537e-03 -7.47784087e-03 1.81548782e-02
      6.92357449e-03 2.50060521e-02 9.48429387e-03 -2.35872483e-03
      -2.53832527e-02 -5.25395246e-03 2.16347836e-02 3.77093581e-03
      -3.10942717e-02 -6.55514013e-04 -1.42889079e-02 -4.10457328e-02
      -6.23440295e-02 -3.36455218e-02 9.12718568e-03 4.17789221e-02
      3.71271186e-02 3.45497988e-02 5.83173661e-03 3.72519903e-02
      3.98105904e-02 -1.62152182e-02 -1.21131213e-02 2.82854754e-02
      -2.50289664e-02 -3.84136997e-02 -1.03662787e-02 -2.43527014e-02
      1.99736264e-02 2.56111175e-02 -1.08202677e-02 -1.74675584e-02
      -1.58557110e-02 -3.43883894e-02 -6.24859370e-02 -7.36565143e-02
      2.02823430e-03 -1.10234618e-02 2.24780478e-02 -2.13370044e-02
      1.30530894e-02 6.04924234e-03 1.37198335e-02 3.01014390e-02
      9.60016809e-03 2.37697875e-03 2.29265355e-02 1.06581468e-02
      -1.87898986e-02 -3.58070508e-02 -2.59212516e-02 -1.20186685e-02
      -2.17356514e-02 -2.93405280e-02 4.16642101e-03 -1.27331829e-02
      3.98886763e-03 -3.47089171e-02 -5.83015569e-03 2.22016871e-03
      2.65441872e-02 -2.21058037e-02 -4.34394293e-02 1.04750628e-02
      1.48906633e-02 -1.26443412e-02 -1.93931125e-02 -1.59490723e-02
      2.99877543e-02 6.92571141e-03 -3.59320529e-02 1.86675799e-03
      -7.16128899e-03 3.18342187e-02 -9.45430249e-03 -2.36159638e-02
      -5.81558198e-02 2.56017260e-02 1.74299104e-03 -3.11574005e-02
      -2.26685628e-02 -2.16610208e-02 -2.27402281e-02 -2.05736514e-02
      -2.33011525e-02 -1.69964484e-03 2.43143793e-02 -1.58789586e-02
      -7.81553537e-02 -1.14758620e-02 -2.41297651e-02 -8.26270133e-03
      -7.98457954e-03 -1.82886273e-02 -5.35948053e-02 2.25938251e-03
      4.06881683e-02 -1.16583845e-02 2.91230697e-02 -3.98652424e-04
      2.38773134e-02 1.38763972e-02 -7.54930777e-03 -4.28325199e-02
      3.30727361e-02 6.01879209e-02 -4.12143162e-03 6.84010889e-03
      -3.63304392e-02 -1.68645177e-02 -2.11316682e-02 -2.16791555e-02
      -4.59711626e-02 1.92035045e-02 -4.85404255e-03 -2.35377550e-02
      1.20577822e-02 -1.27070313e-02 1.07712559e-02 1.47543428e-02
      -1.10654077e-02 -5.07353060e-02 1.10772597e-02 -3.69897252e-03
      -1.53156621e-02 -8.17407737e-04 -2.27007829e-02 -1.87512245e-02
      -4.88751521e-03 -4.05637212e-02 -6.73273578e-02 -3.76813896e-02
      6.93504289e-02 5.65508101e-03 -2.74936259e-02 -2.96599641e-02
      -1.55042857e-02 -4.06118529e-03 -8.69376212e-03 -6.42588064e-02
      6.35412196e-03 3.16486284e-02 -2.99883876e-02 -3.81542332e-02
      -3.67043428e-02 -1.70933343e-02 -2.42430568e-02 -1.85690839e-02
      -5.01784496e-02 -7.20228199e-05 4.44144346e-02 -1.75482370e-02
      4.87214047e-03 3.56618781e-03 -3.23947024e-04 1.73413977e-02
      -5.32553950e-03 -3.97520326e-02 3.10768583e-03 2.53583631e-03
      -5.97803667e-02 -1.91814136e-02 -1.55645004e-03 1.94036197e-02
      1.56419035e-02 -7.42648030e-04 -4.46025692e-02 -1.87015571e-02
      -1.38002411e-02 -6.62363842e-02 -1.47953723e-02 2.79522804e-03
      2.58291792e-02 9.75734275e-03 2.38987766e-02 1.51016088e-02
      -7.29512330e-03 -5.93243651e-02 -8.81719738e-02 -1.61710791e-02
      1.67044867e-02 2.09255964e-02 1.52894454e-02 -1.19079221e-02
      -2.86842156e-02 -3.07268556e-02 1.10580102e-02 -4.86485213e-02
      -2.26060729e-02 5.43450797e-03 3.83855104e-02 4.88583632e-02
      3.65405306e-02 -1.59410927e-02 -6.65658247e-03 -4.40818295e-02
      -4.59375307e-02 -3.99611630e-02 1.20531404e-02 4.99184579e-02
      6.89691454e-02 1.42382393e-02 -1.99064817e-02 -4.64267805e-02
      -5.73833250e-02 -4.27199341e-02 -5.30210696e-03 1.41135901e-02
      2.06793007e-02 1.56928450e-02 -3.40946415e-03 -1.27956914e-02
      -1.02524292e-02 -7.15168938e-02 -1.94142051e-02 -9.54645593e-03
      1.19137364e-02 4.75119725e-02 -4.50873422e-03 -3.19673563e-03
      -2.73080301e-02 -2.89876517e-02 -6.39478043e-02 -2.87665688e-02
      -7.33147701e-03 3.33935656e-02 5.31340092e-02 4.71647978e-02
      1.61408018e-02 2.28893980e-02 -1.55218830e-02 -7.16570839e-02
      -3.88279334e-02 1.82403475e-02 4.87690568e-02 5.08641452e-02
      -9.71983280e-03 -1.71612091e-02 -3.09600048e-02 -9.89600434e-04
      -4.68478985e-02 -2.74399221e-02 -4.90155653e-04 2.55586673e-02
      6.18165843e-02 9.59090539e-04 -1.59883630e-02 -1.83462016e-02
      -4.32354845e-02 -1.78425144e-02 -1.54893165e-02 -3.23141143e-02
      9.62882023e-03 4.54954505e-02 3.26225162e-02 -3.52194812e-03
      1.70690543e-03 -5.67999855e-02 -7.57365376e-02 -1.38778761e-02
      1.20194405e-02 4.63586971e-02 7.61761516e-02 -4.47831908e-03
      -1.50428871e-02 -6.65207654e-02 -9.32132266e-03 -1.29662091e-02
      -1.15257278e-02 -1.35835502e-02 2.76951957e-03 2.45104376e-02
      1.79227367e-02 -9.31094494e-03 -4.56968658e-02 -3.35432799e-03
      -3.62907536e-02 -3.20245810e-02 -4.54320423e-02 -1.49702411e-02
      1.36751521e-04 2.06877086e-02 -6.26412081e-03 1.67586561e-02
      -3.16992998e-02 -3.61249223e-02 -3.38432230e-02 -1.72245186e-02
      3.24910618e-02 5.00948019e-02 2.55947020e-02 1.74611341e-02
      -4.89563867e-03 -7.07603002e-04 -2.76397411e-02 -1.56477969e-02
      -1.42075792e-02 -1.25342822e-02 5.31271193e-03 1.79841947e-02
      -1.82421897e-02 -3.89793627e-02 -8.08774866e-03 -1.75113566e-02
      -2.94590071e-02 2.08029449e-02 3.17775011e-02 3.00280508e-02
      1.34968590e-02 -1.53547535e-02 -5.18978480e-03 5.83734829e-03
      -5.24184629e-02 -7.91661907e-03 -7.65395816e-03 2.95726899e-02
      1.03942247e-03 1.78504605e-02 -1.72880888e-02 -4.83944714e-02
      -3.08395419e-02 2.43910402e-03 -2.62394901e-02 -8.93229246e-03
      2.06549838e-02 -1.68418624e-02 1.17051303e-02 9.69141442e-03
      -8.48691072e-03 -8.21788143e-03 -4.00254577e-02 -2.91995816e-02
      1.56341027e-02 1.10917501e-02 -3.56603190e-02 -1.18840635e-02
      -4.87438627e-02 -4.27455548e-03 -1.04185557e-02 5.79031743e-03
      -1.19107151e-02 1.31684691e-02 2.63399328e-03 -2.26324759e-02
      1.67515839e-03 -3.13078053e-02 -9.03459638e-03 9.57143214e-03
      -2.27821954e-02 -6.56435564e-02 -4.55553159e-02 2.42073322e-03
      -7.38436449e-03 -4.07559015e-02 -1.71956271e-02 -4.26569730e-02
      -3.28235589e-02 -2.43751910e-02 -1.77399740e-02 2.73221154e-02
      4.03524190e-02 5.35507826e-03 -9.33860335e-03 -5.35650039e-03
      -1.76981911e-02 -2.82670949e-02 -2.65794415e-02 -6.44181967e-02
      -3.01635675e-02 -2.51756571e-02 1.23358658e-02 -4.03813720e-02
      -5.23887239e-02 -5.27527407e-02 -2.72368789e-02 -3.05295717e-02
      1.79207942e-03 8.84723105e-03 2.38111410e-02 3.39461379e-02
      6.35887356e-03 -4.02436312e-03 -2.31731031e-02 -8.29475094e-03
      -4.60071340e-02 -1.30718891e-02 5.33518679e-02 -6.60139695e-03
      -4.59869765e-02 -7.53852129e-02 -3.46358418e-02 -7.56560033e-03
      -4.47331741e-02 3.98553312e-02 1.64768379e-02 3.89517769e-02
      2.17959862e-02 -2.07454599e-02 -1.66812800e-02 -2.54695937e-02
      2.54465062e-02 3.35189812e-02 -4.57574874e-02 7.34903384e-04
      1.20290797e-02 -2.12942455e-02 -7.15786591e-02 -5.29522225e-02
      -1.35395145e-02 -1.25709008e-02 -4.16134186e-02 2.83422936e-02
      3.13393697e-02 3.44358161e-02 2.26464476e-02 -1.39060104e-02
      2.89588887e-03 2.59573963e-02 3.90915237e-02 1.94856562e-02
      1.97641235e-02 3.32213305e-02 5.30343987e-02 5.76788839e-03
      -4.67540622e-02 -7.87346810e-03 -1.74899586e-02 -3.73087414e-02
      -4.45796736e-02 -3.84187251e-02 -1.87996048e-02 1.02586998e-02
      -1.41802086e-02 -4.75440882e-02 -4.79491092e-02 -6.56306073e-02
      -6.15991503e-02 -6.49733022e-02 6.52310029e-02 4.09288108e-02
      6.55023381e-02 5.87942963e-03 -2.43952069e-02 -6.86700642e-03
      -4.07307111e-02 -3.25792320e-02 3.09082977e-02 1.52893281e-02
      2.63344409e-04 8.99015809e-04 -3.14293317e-02 5.07730711e-03
      -1.16508696e-02 -3.04805208e-02 -4.76867482e-02 3.12545523e-03
      -1.30038802e-02 -8.47830903e-03 -3.47629339e-02 -2.13268008e-02
      -3.61485183e-02 -1.21639390e-02 -2.88494863e-02 -3.90947685e-02
      -1.86306685e-02 -5.59034059e-04 -1.43532548e-02 -1.63010135e-02
      -2.32257415e-02 -4.29764390e-02 -2.96554174e-02 -5.77971190e-02
      -5.31539433e-02 -1.89950957e-03 7.56646646e-03 -3.11756376e-02
      -2.13611070e-02 -9.31269303e-03 1.98455099e-02 2.65753409e-03
      -2.37576738e-02 -1.57231428e-02 1.57562774e-02 1.73546262e-02
      -3.04616429e-03 -1.61143895e-02 -2.11174376e-02 -5.09486953e-03
      -3.48295011e-02 -2.68607121e-02 5.66717656e-03 3.06031443e-02
      -2.13102512e-02 -2.70830914e-02 -4.87739965e-02 -5.12579717e-02
      -7.89106041e-02 -4.02224213e-02 -4.49552573e-02 -4.00722921e-02
      7.56460242e-03 4.56806198e-02 2.91129518e-02 1.24587247e-03
      1.23739978e-02 6.02268009e-03 1.25854202e-02 -2.49995459e-02
      -2.28494871e-02 9.51528829e-03 2.35469285e-02 8.26199166e-03
      -2.55355779e-02 -3.78245562e-02 -6.52571172e-02 -5.59302308e-02
      -6.06714413e-02 -2.39597503e-02 3.95260081e-02 6.75141513e-02
      4.69063334e-02 4.47199456e-02 1.51392110e-02 1.42501236e-03
      2.03011907e-03 -1.65775865e-02 -3.85457277e-02 4.39740121e-02
      3.50046419e-02 -6.30655373e-03 -4.29357067e-02 -1.60724167e-02
      9.86979995e-03 3.95756168e-03 -4.23047245e-02 -3.32802311e-02
      1.11527694e-02 3.34952921e-02 1.73848495e-02 4.67911246e-04
      2.68652868e-02 3.08505446e-02 7.49936746e-03 -2.18948349e-02
      1.87176396e-03 1.72899086e-02 9.44470242e-03 -1.31143508e-02
      -1.12844082e-02 -2.78247297e-02 2.48815808e-02 -1.03125777e-02
      -4.27481905e-02 -5.49265742e-02 -3.03883664e-02 -5.08042797e-03
      -2.27082986e-03 -2.00600196e-02 -1.04454299e-03 3.00246719e-02
      -1.07684662e-03 -3.05086188e-02 -6.47337884e-02 -6.82720244e-02
      4.10063602e-02 1.77926607e-02 -1.56168896e-03 1.60846841e-02
      1.29247187e-02 3.44642764e-03 -2.17010062e-02 -7.90215563e-03
      -2.08924562e-02 1.39385266e-02 -1.99777465e-02 -1.46914190e-02
      -1.42145362e-02 -1.29339145e-02 2.31929533e-02 -4.06573825e-02
      -8.52263067e-03 -1.51045583e-02 -1.26356008e-02 -3.84956878e-03
      1.82412919e-02 2.75600608e-02 2.44191401e-02 -8.70136824e-03
      -3.35776843e-02 -4.68417108e-02 -4.71813008e-02 2.01847181e-02
      -5.01663871e-02 -1.03821550e-02 3.21263634e-03 1.06059508e-02
      8.43689963e-03 -4.39648144e-02 -8.16505626e-02 -2.55654827e-02
      4.31033894e-02 -2.00376008e-02 -1.47822676e-02 5.81858680e-03
      -2.73346156e-03 2.82633211e-02 -1.60637237e-02 -4.67958656e-04
      6.22418150e-02 3.16374376e-02 -5.60746416e-02 -5.01007922e-02
      -2.09227502e-02 -1.77641021e-04 -6.79974630e-03 -3.45580163e-03
      -2.21330132e-02 5.06570861e-02 3.20244692e-02 -3.77722718e-02
      -2.86974423e-02 -3.20359203e-03 1.25520199e-03 2.14609522e-02
      -1.16170309e-02 -4.40444909e-02 3.31239551e-02 3.91221903e-02
      -4.53964621e-02 -5.68879731e-02 -3.05302087e-02 -1.88051816e-02
      -2.75896136e-02 -4.28989343e-03 -3.35165225e-02 3.72686307e-03
      3.79527025e-02 -1.08283013e-02 -2.93998569e-02 -4.71636513e-03
      8.26998800e-03 1.64753236e-02 1.52107999e-02 -1.95927154e-02
      5.02151474e-02 4.14941683e-02 -2.13830289e-03 -1.80221740e-02
      -2.35288274e-02 -3.37925069e-02 -2.11307034e-02 -1.63174886e-02
      -2.40597539e-02 2.24382672e-02 1.51707632e-02 -1.60489641e-02
      -2.92043034e-02 -2.06845608e-02 -1.25942857e-03 -2.01152638e-02
      -2.40942482e-02 -5.28998449e-02 1.61072649e-02 2.94904644e-03
      -2.54156012e-02 -5.79775088e-02 -5.61602153e-02 -1.27277346e-02
      -3.20732556e-02 -4.38161828e-02 -4.07334305e-02 -2.77211778e-02
      5.47350310e-02 -2.05410421e-02 -2.07670387e-02 -2.03508534e-03
      8.93060770e-03 8.56298860e-03 3.17505328e-03 -3.04054283e-03
      2.13303566e-02 3.32180187e-02 -5.40788956e-02 -2.88569182e-02
      3.04972113e-04 4.62819263e-02 2.74612326e-02 2.32583415e-02
      -6.20354293e-03 1.08538233e-02 -2.59511471e-02 -1.35084828e-02
      -3.16632278e-02 -2.50910688e-02 1.18733952e-02 -2.37366837e-02
      -3.00148744e-02 -2.43743714e-02 -5.39511070e-02 -7.44919851e-02
      -2.71896031e-02 -2.49180794e-02 -4.41119960e-03 -1.15699442e-02
      -3.42547782e-02 -1.96899287e-02 9.24679637e-03 -1.26103386e-02
      3.61309722e-02 -2.63593849e-02 3.35536874e-03 2.61063166e-02
      4.04840931e-02 3.15717869e-02 3.36070098e-02 2.05795206e-02
      1.13961296e-02 -1.38106160e-02 -3.24265007e-03 1.70760974e-02
      2.62754634e-02 3.79985049e-02 3.22151706e-02 2.56968848e-02
      -2.79815998e-02 -3.97879854e-02 -4.27817516e-02 -1.60306357e-02
      1.28988717e-02 2.12962031e-02 1.15138991e-02 -1.68215223e-02
      1.22647500e-02 3.35362628e-02 7.84967095e-03 -3.09514590e-02
      4.46192222e-04 2.44484022e-02 2.28734482e-02 1.07354438e-02
      -2.82258377e-03 5.43849543e-03 -2.93924287e-02 -5.15185669e-02
      -7.44470907e-03 -1.16876177e-02 1.89614631e-02 2.76174806e-02
      4.83307503e-02 3.10434774e-02 6.75520953e-03 -4.23959177e-03
      -1.06870271e-02 -3.36976387e-02 3.93042341e-04 1.16880760e-02
      3.84545289e-02 4.50850166e-02 -9.28543136e-03 -2.25359630e-02
      -2.59392075e-02 -2.17400864e-02 -2.40599886e-02 2.85698194e-02
      4.37241755e-02 2.50784028e-02 4.66351360e-02 2.42934693e-02
      4.01507627e-04 -3.72737944e-02 -4.04510163e-02 -1.15982937e-02
      3.46508473e-02 4.02054638e-02 3.85981239e-02 3.54278162e-02
      3.82609968e-03 -1.44354086e-02 -3.08906101e-02 -6.00619651e-02
      -3.24486606e-02 3.96558549e-03 -2.55999225e-03 2.72589233e-02
      4.62668426e-02 -1.08622024e-02 -3.47550698e-02 -4.74214442e-02
      -1.94337592e-02 -2.28116023e-05 -5.91996918e-03 -6.73844805e-03
      -6.68588281e-03 3.88409272e-02 -4.96856915e-03 -2.42404826e-02
      -3.17865200e-02 -1.00164013e-02 7.44849583e-03 4.66151303e-03
      1.70456857e-04 1.51402419e-02 2.87710708e-02 2.10999958e-02
      -1.79145951e-02 -4.33485284e-02 -2.94097550e-02 -3.61868553e-03
      1.60088856e-02 1.63091440e-02 6.93917833e-03 4.52185757e-02
      -9.97503521e-04 -4.00199294e-02 -5.28944992e-02 -2.74968296e-02
      -2.33381707e-02 -1.13861030e-02 -7.03549571e-03 7.42290961e-03
      4.44087014e-02 3.06890849e-02 -5.49996085e-03 -3.59662212e-02
      -1.99538860e-02 -6.88651390e-03 -3.64662036e-02 7.79059203e-03
      1.72313431e-03 2.11972538e-02 4.95387753e-03 -1.77066159e-02
      -2.87082866e-02 2.36685621e-03 -5.09391613e-02 4.19163844e-03
      2.17055250e-02 4.44526039e-03 4.77595255e-02 -1.10320537e-03
      -3.72531973e-02 -3.41193043e-02 -3.94028537e-02 -3.13420482e-02
      -1.02827000e-02 6.66100904e-03 2.42395457e-02 4.73757386e-02
      2.84413937e-02 -2.34191269e-02 -4.80737314e-02 -4.46813833e-03
      -7.24788057e-03 -2.64566913e-02 2.09581405e-02 4.08182573e-03
      -2.22434918e-03 -6.91206846e-03 -3.29064168e-02 -3.54933999e-02
      -3.86145478e-03 1.41329169e-02 -1.66407805e-02 3.91167887e-02
      1.24077862e-02 2.73715388e-02 4.27845214e-03 -3.61433215e-02
      -3.14158164e-02 1.84127167e-02 -1.61819533e-02 -3.36808711e-02
      -1.27596986e-02 5.57108689e-03 -4.75323154e-03 6.84551429e-03
      -6.16323128e-02 -8.30953494e-02 8.64394382e-03 1.26339449e-02
      -1.92529000e-02 4.06385511e-02 2.82909572e-02 3.13167423e-02
      2.21816003e-02 -2.15730462e-02 -2.40341611e-02 1.41395237e-02
      9.28507093e-03 -6.60735145e-02 2.06474469e-05 -2.35564802e-02
      2.21076123e-02 -6.61603594e-03 -6.34766594e-02 -5.21651022e-02
      5.85710118e-03 2.12759785e-02 1.39221025e-03 1.95935909e-02
      5.64106088e-03 2.71142721e-02 2.77286656e-02 5.77627972e-04
      -8.90952442e-03 1.06560076e-02 -2.28005648e-02 -5.96617423e-02
      1.22702783e-02 -1.04785040e-02 -6.47462904e-02 -8.31127632e-03
      -3.65603454e-02 -2.01667156e-02 -2.48452500e-02 2.43091304e-02
      1.21724755e-02 2.81504318e-02 1.16619859e-02 1.04502747e-02
      5.35067916e-02 -4.97885561e-03 4.28778993e-04 1.55471247e-02
      -3.08576319e-02 -1.20689068e-03 -1.38194431e-02 -4.45326380e-02
      -4.05182429e-02 -3.48234177e-02 -1.04071321e-02 -1.99808483e-03
      -4.43170592e-02 6.83448836e-03 3.25534195e-02 1.73037965e-02
      -9.68130771e-03 -1.55517487e-02 -1.84191507e-03 7.91369099e-03
      3.79740857e-02 1.14890719e-02 -2.25835126e-02 2.58668438e-02
      5.65195130e-03 -5.56934141e-02 -2.19150372e-02 -1.38382474e-02
      -3.03293001e-02 -8.51908885e-03 -1.42504908e-02 2.14456767e-02
      5.58958314e-02 3.26964483e-02 -1.04398578e-02 4.10847925e-03
      3.04762303e-04 7.35935057e-03 3.07451747e-02 3.40719819e-02
      5.66192865e-02 2.97173690e-02 3.55482921e-02 1.64100516e-03
      8.98814108e-03 9.84556414e-03 -3.63161899e-02 -3.47233117e-02
      -7.73674948e-03 6.42633624e-03 1.62788313e-02 9.80604719e-03
      -2.64070872e-02 -3.70899076e-03 -1.23283565e-02 -2.71883160e-02
      -5.99963591e-02 -4.39224914e-02 5.67828678e-02 3.87139898e-03
      1.22250225e-02 1.39764706e-02 4.41194978e-03 2.61864141e-02
      5.11158071e-03 -3.75623698e-03 -3.22821550e-03 2.76998635e-02
      5.09191817e-03 3.29466201e-02 9.19690635e-03 -3.47273308e-03
      -2.12934799e-03 -9.72780585e-03 -4.48631682e-02 -5.08756079e-02
      1.55902691e-02 -4.15097997e-02 -2.20402181e-02 -3.14115211e-02
      9.21946857e-03 1.06185703e-02 -4.34632748e-02 -2.91041918e-02
      -1.17404899e-02 5.25203021e-03 -6.02915101e-02 -2.43434925e-02
      -3.16748507e-02 -1.44360969e-02 -1.68369077e-02 -7.15548173e-02
      -3.68516073e-02 -1.58303976e-02 3.88791226e-02 -5.65569848e-03
      3.87300327e-02 2.98796780e-02 9.54698015e-04 1.23963784e-02
      -1.88023280e-02 -1.63049251e-02 1.77536774e-02 3.35066430e-02
      -1.34498831e-02 2.99550220e-03 -3.32258381e-02 -2.20567696e-02
      5.40123228e-03 -7.89984129e-03 -2.62877028e-02 2.41798703e-02
      1.83162354e-02 5.54676307e-03 2.66182106e-02 -1.00138802e-02
      -3.68748978e-02 -1.88437179e-02 -5.58950454e-02 -3.36335897e-02
      3.42990248e-03 3.42697576e-02 4.60385866e-02 5.10958657e-02
      1.98272243e-02 -8.75030272e-03 7.59804575e-03 -1.22574577e-02
      -1.91295967e-02 1.48600070e-02 6.73537888e-03 1.82914380e-02
      2.33585332e-02 -2.18646806e-02 -3.84951271e-02 1.88638645e-04
      -2.21294072e-02 -4.70284149e-02 8.31504632e-03 1.67281348e-02
      6.24694936e-02 4.08691689e-02 7.56207388e-03 -1.33142145e-02
      -2.71102488e-02 -1.63156968e-02 -5.47647253e-02 -3.42067936e-03
      5.10058291e-02 3.71571518e-02 2.37311255e-02 2.00342368e-02
      3.80166359e-02 1.99843794e-02 2.15911362e-02 -2.23789196e-02
      1.62753332e-02 3.68202031e-02 2.28997171e-02 -3.23653658e-04
      1.84687693e-02 2.33004801e-02 2.84048263e-02 9.00806393e-03
      -2.48820093e-02 -1.23218773e-02 1.51898358e-02 4.97070029e-02
      2.11656708e-02 1.21316481e-02 4.04422991e-02 -3.60631570e-02
      -3.34676169e-03 -9.40917805e-02 -3.24004367e-02 -2.89265625e-02
      -1.98887549e-02 -2.47194748e-02 -1.30147384e-02 -1.57212038e-02
      -7.70218438e-03 5.93735045e-03 -2.76718698e-02 8.70778877e-03
      5.74841425e-02 2.24396288e-02 1.49860596e-02 3.07541210e-02
      5.18351197e-02 3.59741934e-02 -3.79175902e-03 -2.86129266e-02
      4.55572642e-03 4.72415388e-02 2.59555634e-02 -7.20362505e-03
      2.74718404e-02 4.74997498e-02 2.85839774e-02 -2.05350891e-02
      -5.81512973e-02 -1.11102173e-02 -2.90880483e-02 -2.07363279e-03
      -2.10285652e-03 1.54273193e-02 2.67355274e-02 3.76250818e-02
      1.97281688e-02 -1.19077154e-02 -1.45730823e-02 -3.56218033e-02
      2.04921588e-02 -1.77025180e-02 1.35243284e-02 4.00569849e-02
      5.77980243e-02 3.34667112e-03 -7.98060745e-02 -4.01871800e-02
      5.68330362e-02 1.22929849e-02 -7.54323415e-03 1.90014932e-02
      3.29640657e-02 2.29299013e-02 2.50069867e-03 -3.49182934e-02
      5.78744113e-02 6.51115924e-02 -3.87757868e-02 -3.69700929e-03
      1.63275916e-02 6.83260411e-02 -1.38506349e-02 3.55783966e-03
      6.18737703e-03 6.53713718e-02 -2.24453639e-02 1.22525916e-02
      -2.87451483e-02 3.92231205e-03 3.75274532e-02 2.85206381e-02
      2.67128402e-04 -2.21338626e-02 -2.28040889e-02 -2.02505775e-02
      -2.53529996e-02 -4.83452976e-02 -8.02993495e-03 3.08236834e-02
      4.01477143e-03 1.73485011e-03 -1.06559983e-02 -1.18654026e-02
      3.31048891e-02 -4.57162224e-02 -7.61041231e-03 -8.43647216e-03
      2.27730554e-02 -8.84417817e-03 6.92630187e-03 -1.85663141e-02
      5.14069274e-02 2.50227470e-02 -4.23673950e-02 -5.52591532e-02
      1.23824459e-03 2.09592618e-02 3.40522942e-03 1.14304116e-02
      -1.54980756e-02 1.65890325e-02 -5.61751099e-03 -9.59712081e-03
      -2.63522398e-02 -1.12869218e-02 1.59586836e-02 2.65781283e-02
      2.02896800e-02 4.56960127e-03 1.14792706e-02 -3.96292396e-02
      -4.54137400e-02 -5.92563525e-02 -1.31474230e-02 3.02356370e-02
      2.05840468e-02 3.07304319e-02 -1.24352193e-02 -3.18209687e-03
      3.26470728e-03 -6.67517167e-03 -2.82684993e-02 1.15465168e-02
      4.77529764e-02 3.90544091e-03 9.38510988e-03 -4.37137578e-03
      -1.56972781e-02 -9.10195336e-03 1.35005135e-02 -1.06043331e-02
      -3.01957945e-03 1.77352354e-02 -5.06419595e-03 2.20522601e-02
      4.26621437e-02 2.25511566e-02 1.67310820e-03 -3.56952921e-02
      -3.62288170e-02 7.33005581e-03 4.75981198e-02 2.21452359e-02
      4.66964673e-03 -1.07570933e-02 -4.73524258e-03 2.27895677e-02
      -3.45019973e-03 -1.09409634e-02 -1.08131692e-02 7.90925976e-03
      -3.12077603e-03 1.90418586e-03 7.25053251e-03 -7.90342456e-04
      -2.14343052e-03 -1.94285007e-03 1.58574227e-02 8.57307576e-03
      -2.29641777e-02 -1.34434560e-02 2.84547452e-03 3.18346061e-02
      -1.94465520e-03 -1.04031265e-02 1.51983546e-02 4.05401327e-02
      2.12850329e-02 2.92277951e-02 2.03660149e-02 1.52807143e-02
      2.29556412e-02 -3.01854941e-03 1.96599066e-02 2.51837987e-02
      3.33539629e-03 3.41621530e-03 -1.88580789e-02 2.98066763e-04
      -1.16230287e-02 7.13562220e-03 2.38956902e-02 2.29888745e-02
      3.29654440e-02 3.73372845e-02 2.51532570e-02 2.36647446e-02
      3.72220688e-02 -2.04383838e-03 1.50796268e-02 1.58974435e-03
      -2.89825499e-02 7.40471529e-03 2.78403070e-02 1.77776534e-02
      2.92634256e-02 3.05112358e-02 1.43779349e-03 -1.60125587e-02
      -4.25211452e-02 1.17692649e-02 1.10246995e-02 2.34937463e-02
      3.37162763e-02 1.89781208e-02 1.29062152e-02 -4.41343077e-02
      -5.76394871e-02 -3.50281186e-02 -7.36689428e-03 2.98808273e-02
      3.78894284e-02 6.72927825e-03 2.67716814e-02 2.68111564e-02
      9.06571746e-03 -1.23014748e-02 -1.57287922e-02 5.27616730e-03
      4.14695628e-02 3.52370031e-02 1.06889876e-02 1.50670651e-02
      3.98232751e-02 8.66307877e-03 -6.06690487e-03 -7.21209170e-03
      1.85135193e-02 -2.41090115e-02 -9.73640941e-03 -5.09521669e-06
      2.89845373e-02 2.52095219e-02 -9.12610348e-03 -4.74902913e-02
      -2.17174776e-02 -9.68764629e-03 1.20302290e-02 1.28540341e-02
      -4.12761681e-02 1.17745353e-02 9.14990436e-03 8.84105824e-03
      -4.43962812e-02 -3.05705592e-02 3.29799950e-02 6.57742796e-03
      1.06861806e-02 -1.29934326e-02 7.00005051e-03 1.90131832e-02
      -3.31929466e-03 -3.33818085e-02 5.63099887e-03 5.33014908e-02
      5.06369304e-03 1.10096652e-02 -2.41800789e-02 1.00958217e-02
      3.26662324e-02 2.00517587e-02 -2.51272582e-02 2.33307164e-02
      -5.34484759e-02 1.73534378e-02 1.99399237e-02 -2.10688096e-02
      2.25301413e-03 -2.13647704e-03 -3.24317887e-02 -3.19441818e-02
      -6.08563460e-02 -4.01998907e-02 3.59085063e-03 2.07397472e-02
      2.59830598e-02 3.37214246e-02 4.40241657e-02 -2.31070397e-03
      -3.27346213e-02 -2.38286573e-02 2.47372538e-02 3.29594351e-02
      1.90362819e-02 -1.49578424e-02 1.89255003e-03 1.68268811e-02
      -1.24295214e-02 -9.45049431e-03 -4.35406622e-03 2.53763404e-02
      3.72647196e-02 2.56396718e-02 7.63136428e-03 7.53937475e-03
      5.94127811e-02 -1.61430787e-03 9.12113488e-03 4.08175495e-03
      -2.86367275e-02 -4.42082100e-02 -4.44592070e-03 6.72844350e-02
      3.14768516e-02 1.52873192e-02 -2.25805249e-02 -4.71375696e-02
      -3.11610345e-02 5.96895348e-03 -2.59657633e-02 2.23131273e-02
      3.39719132e-02 8.52544606e-03 -4.10152460e-03 -9.97413602e-03
      -2.14285199e-02 8.24767258e-03 2.72137076e-02 -7.14413729e-03
      2.42903940e-02 2.89911125e-02 -1.36228441e-03 8.74310918e-03
      7.52011221e-03 -3.23760533e-03 2.89178640e-02 3.51749212e-02
      2.87868408e-03 2.35446598e-02 5.83011191e-03 -7.23707257e-03
      -1.66910291e-02 2.99370475e-02 1.28736207e-02 6.38894811e-02
      -3.38525102e-02 -5.09701334e-02 1.20134316e-02 1.55764623e-02
      -5.56232892e-02 -5.12631051e-02 -4.01985981e-02 -3.78293321e-02
      -3.12789716e-02 1.67778041e-02 1.86919365e-02 3.22162993e-02
      2.63411980e-02 2.93931719e-02 1.68872215e-02 3.35713243e-03
      -1.40427332e-02 7.98249245e-03 -8.60080030e-03 4.32798188e-05
      9.12285876e-03 -1.45738933e-03 -7.36519024e-02 -7.23706856e-02
      -2.08238233e-02 -1.67221595e-02 2.39641871e-02 3.66880968e-02
      3.10260877e-02 6.58025891e-02 4.65192497e-02 9.97034553e-03
      1.44202132e-02 1.13213519e-02 1.78979412e-02 5.35914265e-02
      -3.84634919e-02 -1.06096595e-04 -5.47623588e-03 -3.89679484e-02
      -3.26924212e-02 -1.86406337e-02 -1.44438799e-02 -7.15766242e-03
      -2.79479269e-02 2.53724996e-02 2.98606120e-02 1.10638728e-02
      -1.18649388e-02 3.39477323e-02 -1.39887230e-02 1.25486858e-03
      4.47653756e-02 4.87200469e-02 -1.57815684e-02 6.29673339e-03
      3.65044139e-02 -1.64290369e-02 -3.00918091e-02 -3.63299996e-02
      -2.01476961e-02 7.11845607e-03 8.96980893e-03 9.21020564e-03
      3.22203673e-02 1.26715247e-02 -6.80151582e-03 1.21527072e-02
      -1.65280439e-02 1.06554106e-03 3.59723791e-02 3.45584415e-02
      7.29020983e-02 5.03588235e-04 5.56335598e-03 8.14212859e-03
      -1.83527004e-02 -1.79456156e-02 -9.69157554e-03 7.08664767e-03
      4.94746678e-02 3.51775885e-02 1.28460359e-02 3.56030911e-02
      2.47963537e-02 1.67855024e-02 -4.08687741e-02 -1.88630577e-02
      -1.22083146e-02 -1.60008576e-02 7.36969337e-02 5.12742065e-03
      6.72463281e-03 -2.38345657e-02 -3.55168320e-02 -4.53132316e-02
      -1.32552851e-02 6.32442418e-04 5.64459898e-02 2.56423578e-02
      2.74448795e-03 -2.51393835e-03 8.89609195e-03 -3.75279076e-02
      -2.73073204e-02 -3.45889665e-02 -4.73732315e-02 8.27682856e-03
      1.73731167e-02 -8.29672790e-04 4.63367589e-02 3.55625898e-02
      -9.61807743e-03 -1.27359983e-02 -2.02832837e-02 -2.30577383e-02
      5.90788783e-04 1.78705889e-03 -3.27648455e-03 1.79343000e-02
      -5.79039147e-03 -1.12171574e-02 1.75333135e-02 1.66643746e-02
      -3.36262695e-02 -1.36484960e-02 3.55752534e-03 2.74470914e-02
      2.98874862e-02 4.23284769e-02 -4.06014137e-02 1.20158168e-03
      -1.36729032e-02 -4.48391140e-02 4.01956495e-03 1.99213196e-02
      4.06943671e-02 3.29700075e-02 -3.16716032e-03 -3.53837498e-02
      -5.50797535e-03 -2.14940384e-02 -3.48818600e-02 1.54910155e-03
      1.40757840e-02 7.46553857e-03 4.20898618e-03 -1.56697463e-02
      -3.96105349e-02 2.43713502e-02 -1.57066397e-02 -2.43153013e-02
      1.55466301e-02 2.90338583e-02 2.85104867e-02 5.79711376e-03
      -3.25974897e-02 1.00937905e-02 -1.66999269e-02 -2.60322783e-02
      -4.44990993e-02 -1.16165280e-02 8.83403327e-03 1.64827183e-02
      -7.89376628e-03 -1.35841956e-02 -4.40785438e-02 3.96276498e-03
      -6.53031748e-04 -1.28638763e-02 3.50787281e-03 1.70555133e-02
      4.28220481e-02 -2.02919282e-02 -4.37212884e-02 -4.58290577e-02
      -2.43294314e-02 6.76658424e-03 -3.92608158e-02 -3.52642238e-02
      1.68154612e-02 1.67622901e-02 -6.52132090e-03 -2.72557116e-03
      1.02740098e-02 -1.58580765e-02 1.68321375e-02 -6.85147941e-02
      -3.16382088e-02 -1.03034750e-02 -3.71700246e-03 -5.70291700e-03
      -3.18950377e-02 -3.39665078e-02 -1.61553286e-02 4.47565801e-02
      -2.43245028e-02 2.10694340e-03 2.78196838e-02 5.92235401e-02
      -7.02160038e-03 -2.47154105e-02 -4.48453909e-04 -2.05630958e-02
      2.86440440e-02 -4.02845675e-03 -3.08919661e-02 3.61737475e-04
      3.91930752e-02 2.86747776e-02 -2.09182389e-02 -4.29007486e-02
      -1.02324551e-02 3.69444937e-02 1.14036500e-02 1.63522568e-02
      -4.79953317e-03 -2.70675346e-02 1.99428331e-02 -1.59265124e-04
      -2.76507307e-02 5.39574481e-04 5.81557490e-03 -2.30721124e-02
      1.22104660e-02 -2.37449002e-03 -1.12975361e-02 -4.26082499e-03
      2.39573736e-02 1.32875917e-02 3.63243036e-02 -1.20986886e-02
      -5.37407584e-02 -1.31114796e-02 -1.50070814e-02 1.64663256e-03
      3.21514755e-02 5.70679037e-03 -2.43565626e-02 1.76141653e-02
      4.98260483e-02 4.45243195e-02 1.64500754e-02 -1.92218777e-02
      -2.34428863e-03 5.53216925e-03 3.30538750e-02 3.96511108e-02
      3.16518843e-02 2.43723337e-02 2.01329831e-02 2.97251735e-02
      1.51778404e-02 1.66856591e-02 -3.91236618e-02 -2.21873187e-02
      -3.12410784e-03 1.55803701e-02 -2.55575571e-02 -3.55612412e-02
      -2.22704876e-02 2.61126016e-03 1.20579042e-02 -1.55645143e-02
      -3.58348936e-02 -2.25892495e-02 -1.10265305e-02 -2.35438235e-02
      -4.11819704e-02 -6.88117323e-03 4.84024994e-02 1.29578533e-02
      -8.82007740e-03 1.87887680e-02 1.49414940e-02 1.75476307e-04
      -1.66498907e-02 1.02382740e-02 4.08139788e-02 2.60252226e-02
      3.56620289e-02 2.01780926e-02 1.07718324e-02 -1.41205136e-02
      4.73154569e-03 -2.90455949e-02 2.34050234e-03 1.08256023e-02
      -7.41605507e-03 -1.65216941e-02 -9.06054117e-03 -2.31669340e-02
      -3.43674608e-02 1.18187703e-02 2.09921226e-03 6.47052936e-03
      7.49979354e-03 1.60203956e-03 -3.85904461e-02 -3.58979926e-02
      2.96696031e-04 6.40477287e-03 3.08371298e-02 2.24594176e-02
      -2.52369297e-04 2.35521588e-02 1.76192857e-02 3.70710879e-03
      8.07793904e-03 1.85163021e-02 -9.71021364e-04 -1.23962564e-02
      -4.81962226e-03 -9.42220446e-03 2.21026689e-02 2.71317437e-02
      -1.73658766e-02 2.86458582e-02 6.73140213e-02 4.65990305e-02
      1.37670171e-02 1.12449573e-02 1.03761042e-02 7.63804987e-02
      -5.18260570e-03 -8.67940485e-02 -7.83052221e-02 -3.32907736e-02
      -7.58832693e-03 1.88607108e-02 -9.96228307e-03 -7.82294944e-03
      8.83829687e-03 9.32829361e-03 -4.35870700e-02 -3.39722820e-02
      -1.38154039e-02 -2.37906035e-02 -6.88405195e-03 -2.86243819e-02
      9.03881446e-04 4.51257899e-02 4.62262966e-02 -3.95469777e-02
      1.06308460e-02 2.98721455e-02 2.84790937e-02 1.35848401e-02
      -1.50877079e-02 3.65057588e-02 7.60627985e-02 6.97889179e-02
      1.12077529e-02 2.64113955e-02 6.53188210e-03 4.75065559e-02
      2.11566146e-02 -1.54850697e-02 3.43680233e-02 1.17508642e-01
      -5.48299961e-03 -1.81536935e-02 -9.63684916e-03 -1.89083088e-02
      -5.58781400e-02 -2.85507496e-02 -5.02674431e-02 -8.32165312e-03
      1.41291423e-02 2.10493449e-02 1.96512118e-02 1.22885117e-02
      6.54042233e-03 -1.24916330e-03 -3.91622260e-03 -3.98578160e-02
      -1.50018390e-02 -8.46433174e-03 3.98504622e-02 1.85428243e-02
      2.17078589e-02 6.49179937e-03 9.83311050e-03 -1.55663658e-02
      -2.04036944e-02 1.73748638e-02 8.89658406e-02 6.55413121e-02
      6.18305728e-02 3.05717215e-02 1.42081948e-02 2.63786614e-02
      -5.35062980e-03 -1.43639026e-02 -9.10161994e-03 3.02623902e-02
      2.40011839e-03 4.01946204e-03 2.86502740e-03 6.17371814e-04
      -1.09022930e-02 1.04634687e-02 -8.46695900e-03 -3.88224162e-02
      -6.52808771e-02 -2.87637915e-02 3.52895744e-02 7.04912189e-03
      -1.01742391e-02 4.86235553e-03 1.72562525e-02 -2.62246355e-02
      -3.73325311e-02 -1.39050139e-02 1.24637745e-02 5.55559061e-02
      1.78030003e-02 -1.68502855e-03 -3.80236320e-02 -7.41866557e-03
      -2.72477977e-02 -1.42746763e-02 -1.10640144e-02 3.04495078e-02
      6.23957328e-02 6.14961162e-02 4.71543185e-02 3.23279537e-02
      2.26863120e-02 -6.11225981e-03 1.08410539e-02 5.09729562e-03
      -2.52408907e-04 4.04791819e-04 -1.45581374e-02 -9.53798927e-03
      -1.18580600e-02 -4.21751477e-03 -3.32617909e-02 -4.94781546e-02
      -1.29041811e-02 8.80842749e-03 -2.97319796e-02 -9.11719445e-03
      -1.00032124e-03 4.21068305e-03 -1.91956095e-03 -6.66304782e-04
      -2.92175692e-02 1.46919899e-02 7.79439788e-03 3.96055616e-02
      4.56066728e-02 5.26554063e-02 3.77645865e-02 -6.60264678e-03
      -1.84461530e-02 -1.48632471e-02 -3.81566398e-03 -1.32577494e-02
      1.44839066e-03 4.37845476e-02 3.99060361e-02 6.96290955e-02
      1.45615647e-02 1.42209500e-03 1.08021749e-02 -1.46916963e-03
      -1.10683870e-02 -5.40720625e-03 2.35490399e-04 -1.47971753e-02
      9.83342808e-03 2.63529550e-03 -1.21483551e-02 -2.86830422e-02
      -2.28326824e-02 2.23054048e-02 1.16308611e-02 -6.17761677e-03
      -1.06107937e-02 -2.34566033e-02 1.71765778e-02 -2.38901004e-02
      -2.77447980e-02 -4.14562412e-03 -3.24065652e-04 1.20204594e-02
      3.53828035e-02 4.60804291e-02 8.81349444e-02 1.47481412e-02
      -1.00780092e-02 1.46022700e-02 9.23266541e-03 5.00673130e-02
      1.71069819e-02 6.76038256e-03 6.64790720e-03 4.83487956e-02
      3.31542082e-02 -7.53941014e-03 -2.56758463e-02 3.81870270e-02
      7.59439729e-03 -3.47099118e-02 -2.20647249e-02 1.72030404e-02
      2.48045418e-02 -1.37907974e-02 -5.94843179e-03 -1.56837311e-02
      8.72521009e-03 1.53939994e-02 -3.57426517e-02 4.83867247e-03
      3.08782491e-03 2.57065822e-03 -1.64176561e-02 2.29946449e-02
      3.78975132e-03 3.63141820e-02 4.67142276e-02 -1.46521702e-02
      6.49054360e-04 -6.35057082e-03 1.95737686e-02 1.64043829e-02
      1.71431713e-02 1.98275689e-03 4.68623713e-02 2.19061598e-02
      -7.21473154e-03 -3.33083831e-02 -6.77349931e-03 4.34460863e-02
      -3.07661248e-03 1.28533319e-02 2.33855061e-02 4.72493246e-02
      -2.47893985e-02 -2.82762572e-02 -2.47322712e-02 -3.92542034e-02
      -4.09107804e-02 -4.84864414e-02 -1.09094651e-02 5.69768716e-04
      -2.35873088e-03 2.26359162e-02 4.02784528e-04 9.99610033e-03
      6.30789576e-03 2.55310945e-02 4.16888902e-03 2.18400378e-02
      3.75412181e-02 5.06779775e-02 1.49341207e-02 -2.16473155e-02
      -4.42710221e-02 -4.78491560e-02 3.53150666e-02 -4.49487194e-02
      -2.20208652e-02 -1.27481418e-02 4.23978232e-02 2.87834499e-02
      -3.55955306e-03 1.67736802e-02 3.94648351e-02 5.11594824e-02
      -1.75872666e-03 -2.92077325e-02 4.27000830e-03 3.66822109e-02
      -1.73583988e-03 -1.65182550e-03 7.94429518e-03 -3.36284265e-02
      -2.93733887e-02 -2.89585497e-02 -1.37559315e-02 1.32866781e-02
      1.83266886e-02 4.00563031e-02 2.01633312e-02 2.04731189e-02
      1.45219162e-03 2.47005373e-02 -1.55126601e-02 -1.37879923e-02
      3.82015086e-03 5.54462522e-02 9.35054105e-03 -1.25267142e-02
      1.30777368e-02 1.87039115e-02 4.30807890e-03 -6.17283285e-02
      -6.65751100e-02 -2.17935946e-02 2.52698958e-02 2.35887840e-02
      1.52706616e-02 7.57954037e-03 1.56483278e-02 -3.76623236e-02
      2.71884608e-04 -4.12169918e-02 -1.47942966e-02 4.63415384e-02</_></support_vectors>
  <decision_functions>
    <_>
      <sv_count>1</sv_count>
      <rho>-1.7751142715218329e+00</rho>
      <alpha>
        1.</alpha>
      <index>
        0</index></_></decision_functions></my_svm>
</opencv_storage>
